[1,20,15,10,5,1]
2.0433256179664077
1.857277210314086
2.4011561511232205
-1.2783290345582778
1.8591612989447552
-1.4720360485637798
1.8106927722474389
1.0821683856012707
-0.24338392259939096
-0.26855147139093516
-0.8109264416556614
-1.9185962363344053
-1.8160368414457169
1.2130442092862488
2.4827911862535723
0.05897606794108477
1.828192351686085
-1.5194557077876711
-0.9810755929273399
2.511498057969481
0.737371923083655
0.2354580686135346
-1.948269397771406
-0.9825167364146965
1.5203546443822145
1.1916798072666437
-0.2721339314959751
-1.070628199803894
1.232191824704707
0.9178892422218603
-1.0200734324159229
-1.5390183247434868
1.325878306887623
-0.7341599150700019
1.952256850276361
1.2449844708729256
0.06931333647841338
0.6320751979993088
-0.8453355742900479
0.38882250209128394
-0.5930034279678127
-0.5001411839540985
-0.3641223145819174
-0.1283198484814551
0.42787402625127813
-0.03502875558627291
0.4033376142610783
-0.5390312199436863
0.023482734056272936
0.6330311704867407
-0.5193337239070175
-0.3023936501499726
-0.09288348513367131
-0.3958476409593143
-0.5082623631555424
-0.3542829216039412
-0.3585460863197388
-0.32063931227043174
-0.4428623499708829
0.35278974360189613
-0.07777388349547369
0.42164269857334546
-0.32410733028087446
-0.6246968649856013
0.30254556923871834
-0.148939677310324
0.14400999835304465
-0.459880115902794
-0.06904945486048743
-0.5859942784021003
-0.3976379927598677
-0.004325395350744929
-0.5810847026588325
-0.06540590129186528
0.37038983476528037
0.8691526919207332
0.6996513416667292
-0.5076909527639387
-0.17322916552942222
-0.03411082654019548
0.11085475740604413
-0.17989542536055306
-0.5757308939869649
-0.7178231529529984
-0.6036915241535117
0.6057358655048869
-0.16738946020707177
-0.030019909822682923
0.23193278917183371
-0.496554647419235
-0.21406080161285032
-0.17220475557543316
-0.13578249929718036
0.3058892784387784
-0.36321012625721827
0.21324795282730982
0.42502404049201076
0.26678092358253175
0.1860278527183772
-0.015235712719777287
-0.625944783812852
-0.32285167130753784
-0.010676132619365761
-0.4995482156741729
0.31314383126510603
-0.11640744799542102
0.3298806640553908
-0.41023335601386873
-0.4575503445090187
0.3444160234775804
-0.558377406048431
-0.3496779820208479
0.2470104926857607
-0.353467925068579
-0.43994165995078305
-0.22437316590716586
0.11895239476139133
0.46782044224104063
0.1291350200703288
-0.40481018535442675
-0.5471521375063857
-0.31135920402471245
0.4288208758315352
0.1080756636710422
0.2735801588465637
0.31169385802257465
-0.2131502987939646
0.46556109468982226
0.04883570190824231
0.2259004198975329
-0.6035915888289792
0.12154164954422172
-0.19042090696686584
-0.414692827002007
0.6560674159665917
0.7006653155743078
-0.019249725318980563
-0.6620098384579641
0.03966854898095477
0.24565345770288302
-0.3397408149411222
0.39131215777181194
-0.4639506311226122
-0.08502672129476888
-0.4666811572377065
0.18382330594194798
0.31111159875670086
-0.4734864457485287
-0.05369545436712224
0.05330028916658082
0.5447117645942298
0.14048096074273295
-0.05849549891479342
-0.3405605061448309
-0.21949593885062524
-0.02453491120914838
0.09530492966677914
-0.43086240032159323
-0.40603767404776875
0.08525825867341959
-0.02881896240331735
0.009401907711406862
0.06365047182620309
-0.3341961924900043
-0.16864307932382797
-0.4284429267117855
0.030595458015295264
0.19591653061860784
0.0265559138269135
0.18093360636947578
0.3761716703640532
-0.2567881811476634
-0.2890377950228229
0.4134482448524536
-0.15395432567206202
0.07695979652054961
-0.04681459442492854
-0.01791434095900535
-0.05222419855157968
0.18802779675173342
-0.2744009501732857
-0.4347666135405661
-0.09982464520066649
0.1801802231730102
0.14266816099710178
-0.3702588665373898
0.1864386826698747
-0.06713810665498242
-0.0059496905679958245
0.0326211545528867
0.35975017343733323
0.24366634535389461
0.03505555747644174
0.39406323609632044
-0.05971167447829317
-0.133842415290311
-0.30272105467605914
-0.2587051304971072
0.07560230365492604
-0.37656317617520285
0.5174088251675407
0.35407093003589996
-0.35582719250225303
0.24237151804172066
-0.13912718818762304
0.7399588797434613
0.34688329611928886
-0.03580288007208856
0.4732291799912024
-0.11297538656743153
-0.5562540595511903
-0.5384665038710265
0.49747305802327235
-0.015034933363934877
-0.40769699126477066
0.29561973355143795
0.45986738317546494
-0.16868176582442604
0.23297539965371972
0.5648797410520556
0.21203549448902664
0.00019138638256725905
0.5746739729820634
0.04096845581543456
0.032926241037180594
-0.25253992334286973
-0.3600790975467503
0.34471796161155777
0.4996447362814709
0.0024252819612951477
-0.22544404353970843
-0.19606687932733477
0.7545427285465085
0.45250817537707094
0.5584580047533874
-0.2874662924249926
-0.3071217243594175
-0.07241817764297828
-0.03929339294119498
0.18866375074159683
0.4079080364427275
0.40312196133895045
-0.0470979483834793
-0.2461050446282204
0.2716309319288286
0.1000186562766506
-0.11280621051422501
-0.483789261872956
0.18517919538624858
0.047342891799044225
-0.6330967875117445
-0.06113534730485349
-0.6817984949072479
-0.5494437943677934
0.5909542859690022
-0.12272790343152351
0.0262208806110293
-0.26757435295320525
-0.6476955672171635
0.9055920074931474
-0.42841554495430484
-0.2933638368604916
-0.4963066473691441
-0.10847872850485701
-0.6875093041488455
-0.20955763884741396
-0.18369327060537186
-0.20219383221571616
-0.36227936403843364
0.23020918271013444
-0.2248969433687225
-0.23953911873025036
-0.13817051287678306
0.19350586250532487
0.10477367250844076
-0.19193081917278795
0.12737273641054675
-0.02545633247719173
0.16858890310362049
0.2687229826828168
-0.34466739386345124
-0.15556406349704727
-0.4659496756069209
0.06258411768072344
0.5970025205793152
0.5539422289437995
0.20805394967405466
-0.4446212952133484
-0.574264606480221
0.2340910879825266
0.01216651480225846
-0.41413588012842073
-0.04265155290631
-0.22604344326933973
-0.5225379271428746
0.5180705462935867
0.32844308332882444
0.13906511799657528
-0.00561963693785735
-0.34555291121159215
-0.2704466238216255
-0.15123942052076206
0.26798986647427814
0.47605528620147364
-0.18470872373802932
-0.032121961138776293
-0.22901812460021198
0.2662440929244741
0.5538605920676536
0.03493034180650962
0.4311084475756098
-0.12644807876716865
-0.07464255733707137
0.2910387929018548
-0.30195275285236367
-0.41394819328671123
-0.013092115279820155
0.1418905812030762
0.24816135837360798
-0.3214793097093883
0.17467244280743144
0.21923441431043875
-0.17797128094114303
0.14989084769013572
0.022545712108283867
-0.7385448971970121
-0.5387860451403623
-0.5896105777532119
-0.355893312453715
0.5380286167404917
0.0917952196441083
0.4940570844559889
-0.8016991890714297
-0.5498821460409329
0.5366588463031755
-0.17964336292762217
-0.3602608560229028
-0.7544947826356663
-0.40085089149044545
-0.5404851869281266
-2.1632747621040442
0.13465251225319286
1.0387959179137587
-1.3239564071612946
-0.4829737454752889
-1.1642116871933157
-1.0802896287672892
0.09483181582380465
-0.2549781575033019
1.3791929049424083
-1.0623973528257213
-0.43359796664588063
1.24786149106785
1.0986249327981632
0.3089495488160654
1.5385339608763282
-0.4110965108349991
-0.013372763895313739
-0.2490349114518827
-0.08489238926596658
0.031522419004588444
-0.35170002509367354
-0.09522835576291722
-0.29720087218923263
-0.21255637907079777
0.3746358089997209
0.05630908990753533
-0.1605145262890818
0.07474833311467109
-0.26320190229830687
-0.13163938767340885
-0.009855541739568197
0.44243176744845375
-0.5810041534562358
0.10331245545725715
0.34104909673257156
-0.5157340941974787
0.2293743393979468
-0.5516837993254259
0.6366882724126857
-0.5317564849751782
-0.3834955197373577
0.495102029961016
-0.507070242209799
0.4793668665966567
0.6220141005194681
0.3718013288551084
-0.8132853200710046
-0.3010499018143758
-0.18461032669605318
-0.16289589626366605
0.5459206772552222
0.4338157515576457
-0.344501229550509
-0.20930267654410276
-0.6528791520801657
0.3234560987575128
0.21576732880797161
0.34280964237515077
-0.43604545984207144
0.5867462782406873
-0.45149393728383064
-0.10641740421371068
0.7642972870427489
0.10564472438585538
0.21005935389954142
0.4840748003830009
-0.3619794617581219
-0.20911215602499222
-0.3013853182739562
0.5542918512102105
-0.004014271845580203
-0.8412245731153577
0.6589992081913525
-0.19291208557009992
-0.5511358198135824
0.36395222241960173
0.2837308665676221
0.2286986391164113
-0.43591217479078603
0.7559784805691855
0.05778198566448662
-0.6319823516156841
0.3897729475096362
-0.22263293802757667
0.6717540438735965
-0.68669469474494
-0.13088423437702518
-0.12605055841663015
0.6465822479627639
-0.2565219108094237
0.1218031172374761
-0.2181718897572158
-0.5647474686203335
0.4062795528379301
0.542075625648945
-0.4672890564896195
0.2577173186952479
-0.8859476469151498
-0.32586876583789953
-0.18464932050400204
0.15413621992403143
0.3173243297937787
-0.6593036218118489
-0.2656526498150676
-1.1465547838439805
0.12109093043979352
0.6494105052606569
-0.06292005048772403
-0.4387750449963106
-0.18667186396101504
-0.44991321336354473
-0.4321729426353957
0.08333713771850679
0.04227439325799854
0.7572817849092773
0.1421001554924184
-0.7010694134089656
0.34683700343127905
0.305818856389449
0.0833049604666891
0.28461345581726916
-0.4085663409418517
0.20553897533406115
0.1424934715700578
0.42802588275574177
0.04802093498584018
-0.13638419287888015
-0.40659535191898105
-0.022920631324306207
0.04602222568007002
0.3848490785006877
-0.369918393744319
0.3752193882287562
0.18350663248939977
-0.14344105952559497
-0.35975700708951547
0.23421213912678368
-0.1996523731454469
0.6952430015200246
-0.6134696514761488
0.1636422026081991
0.9183856666557545
-0.3760072384685808
0.005197338693389153
-0.14424484024080628
-0.26036441713255115
0.05145701745460691
-0.42799467978203676
0.718950312545595
-0.3453059742024465
-0.28922037224562314
0.43001423307638836
-0.37565874264877236
0.2616680997201439
0.7708159364156544
-0.5136248083349162
-0.36621923595905836
-0.8121213430954337
-0.16609467298331396
0.16873301215813885
0.5336471026291633
-0.17623420269882784
-0.5638252654316119
0.4794644968962117
-1.7354996805369893
-0.6202142419629049
0.5835783468323682
0.13724181814395575
0.632375393394256
0.18726945130023037
-0.4918420481272142
0.753782956896643
-0.1684214813883053
0.11792160328958953
0.3448313236408159
-0.3708674802212812
1.3549680239760298
-1.45942126414922
-1.1220611119598856
-0.6175423687781786
-0.08534029057969934
-0.491218075987784
0.4161981725818391
-1.0923005321467716
0.12777693846802582
0.7692257562630379
-0.10014635130809982
0.3117191772873998
-0.7097636470559484
0.4894726380905528
0.4614434747905417
0.012756459787255448
1.253646373194259
-0.42221538636795874
0.9810296780847118
0.37915428369876764
-0.030580366382469953
-0.09902964408657629
1.1406815534679495
-0.921696985428171
0.4681200828468021
-0.19155389750805837
-0.18621182064197872
-0.8601197977413688
-0.2580333389807084
-0.7848231989199524
0.5683823158951672
0.3567243857095979
0.27765115437286453
0.7911207965101338
0.008328318823248047
-0.006419918196803844
-0.7571588207769931
-0.27954557625166054
0.11790519325683653
-0.3660278177497405
0.35945645492787226
0.36923262862195144
-1.2455543961117972
0.25416003703794465
-0.025580588764396565
0.16090490177330458
-0.3108738096848746
0.3700922804591532
-0.06281948629269586
0.316701900312678
-0.5092850524193361
-0.5484738094032947
-0.8998854798181076
0.6870673763778494
0.7417999970317984
0.6256382244275396
-0.750707963067192
-1.215353324376606
-0.2754653261141203
