[1,20,15,10,5,1]
2.0555159161386465
1.8290568243213163
2.346953329300722
-1.267161747704084
1.8553068277652491
-1.436464861647573
1.7918494875238753
1.0497821949499715
-0.24420772284687878
-0.2591913984520014
-0.8142654324435024
-1.9151001184750047
-1.7736347855753436
1.1807297104830408
2.4831999078512506
0.06701815392422188
1.794678895452937
-1.5034501428478118
-0.9722411289302915
2.492498412060587
0.6630607797801247
0.28108339327182913
-2.157371731927677
-0.9785476587665705
1.5102390887811257
1.346215253286537
-0.3603406567373656
-1.1994544859118885
1.2413267490793387
0.9389971166702072
-0.9264634974479681
-1.5050994162124902
1.4996216917112184
-0.9156909603808145
1.962810735080701
1.2159295603468634
0.03567349177574542
0.7512392527732566
-0.835767785319968
0.40829160034463674
-0.5802059166174057
-0.5080210296333073
-0.35791204373046054
-0.1360683218992337
0.4233106431943635
-0.07594521671513393
0.39315355436589966
-0.5466232586626082
0.06274833816691136
0.6376101972950239
-0.5227361624101006
-0.3010652578965734
-0.05143818204057185
-0.3980611592993034
-0.48888687368484224
-0.35561039289271623
-0.38115378292123475
-0.31797719353013143
-0.45484952443485915
0.3422959446515304
-0.11596675209489134
0.4126606274341558
-0.33339275804485696
-0.5697653518004562
0.3102143719149427
-0.15763693587901134
0.14365856880793534
-0.41885470093437194
-0.07252720230574934
-0.5358792923481046
-0.42057959901623515
-0.045614360527898176
-0.5891586461223072
-0.0825992584310944
0.3617700128993162
0.8858313656831361
0.7029047040269447
-0.5043911037376106
-0.15338922575809683
-0.022053848207504608
0.09491207190585291
-0.18224460605987186
-0.5768460941625897
-0.7132596233309043
-0.5470453779321859
0.5772489031766114
-0.1856858861062642
-0.03681756239183753
0.22456263729713907
-0.4994456177401576
-0.17387607818816103
-0.16227480599389602
-0.12999738435484218
0.2992426956086483
-0.35952154719403867
0.2037560956675295
0.42027615800358287
0.22595324799038988
0.18784652680950747
0.006563886086405364
-0.5858828290945296
-0.29653715598112146
-0.0025131437655562644
-0.4878555969867806
0.3185971948248009
-0.15811258051267907
0.31928690826314143
-0.4156459631806318
-0.4601468749318516
0.33887553266980136
-0.5442783653326788
-0.3425765021185687
0.288527572353337
-0.3550185353996406
-0.4766451504788083
-0.20298736864090697
0.15910631829608107
0.476009060586872
0.14585419922104348
-0.39558911490130405
-0.5582708332918016
-0.3147333326261407
0.42714929280508107
0.08241499469505546
0.26188022925635035
0.3270418956098918
-0.21096189275360733
0.46681473558302033
0.04774416060816974
0.16724247343901644
-0.6187291213495202
0.0859977776436831
-0.19410053956933843
-0.4299612104076553
0.643491991850343
0.6700537239503903
-0.025150641826857584
-0.6692272495410466
0.09431059505620726
0.2560914914876568
-0.35300969738967164
0.389561349829412
-0.4264564403656543
-0.08961297643692535
-0.3964716520543134
0.16371539686158382
0.27233273627895255
-0.4814412301049839
-0.06982790783043882
0.04448428356737979
0.5601903471087922
0.14526988718900408
-0.056658158094170845
-0.3158735537058264
-0.20818160797861746
-0.03925598643436061
0.09331733322630602
-0.43981169653697844
-0.40561254561423865
0.14128684812036474
-0.009337628875560987
0.04627273987384076
0.07095063203719772
-0.31914719624475524
-0.16131209117803552
-0.46174971786828206
0.022105259088087487
0.19239152126988915
0.011039065911433242
0.17032496913176806
0.3900257324601848
-0.2549790536067189
-0.25690332381935976
0.4122060619244583
-0.2018903661258656
0.09375604426909742
-0.013855528062267967
-0.011595632510173787
-0.0387767582159853
0.19476710787737644
-0.3011637035801949
-0.44162129406080003
-0.1025806377761381
0.16470059761798633
0.1331364020754003
-0.3579664546270702
0.1879317305830883
-0.04189412070798814
-0.006924515908366002
-0.01102021466659267
0.33774562175036255
0.21981383019522244
0.02859675896951407
0.38382816008541676
-0.06378624321160226
-0.09538741386069303
-0.29328310161440496
-0.2536887167691957
0.07531284293622861
-0.3703211389228833
0.5066606821344062
0.3507233232770341
-0.3950189075967973
0.24411214170095089
-0.11099631425497854
0.6996482214206451
0.3209255696419976
-0.04400028808744494
0.46200864968767774
-0.11846750090862168
-0.5145190497814319
-0.5278548439729794
0.502889697684319
-0.012564564353535075
-0.40241579649448456
0.28177502186326725
0.45279874225386474
-0.21020232329862573
0.23451192910107677
0.6014996142952012
0.23410967587872972
0.040855659528892196
0.5843835431454215
0.05793753044530365
0.042262876260605486
-0.2579667052515512
-0.3630407065128607
0.34309947149739806
0.47341810699897685
-0.009444336331727173
-0.20980162378142067
-0.19376016264356236
0.7465592781702224
0.4515861488296319
0.4984324174643534
-0.305780767681533
-0.34398201398792555
-0.07980310922287932
-0.05481690368902278
0.1790939795273831
0.4071332778551139
0.4045726103539401
-0.04709065884085678
-0.21422944951959522
0.28252163111092254
0.08601994276592209
-0.11465865279447521
-0.47586022427032154
0.1838509680714241
0.10599828666807329
-0.5823459872243848
-0.031480703314869206
-0.6732474570046507
-0.536749692234893
0.5978249227281808
-0.16465585213397338
0.015500122371722245
-0.27270605311811164
-0.6557194697453844
0.9000880707439913
-0.412301680336611
-0.2844848614382489
-0.4547534587109708
-0.10990517231376018
-0.7317321090514418
-0.19010077713657858
-0.14839682209496952
-0.19493097645496904
-0.3479003738117131
0.23700871796891596
-0.26089018275346787
-0.24867438878118464
-0.14213323077003753
0.1809333012864198
0.09467866167261982
-0.17855341174175973
0.12925422930040217
0.01027360953435138
0.16727280312784326
0.22391153173637976
-0.35242954844591534
-0.18420936706528415
-0.4652045847806833
0.04908630181834349
0.5848912343534445
0.5179810249437241
0.1996931446012301
-0.45372861879940124
-0.5166597867250889
0.24306104436787393
0.0013587833601892202
-0.41517320732530716
-0.0025916838888812685
-0.22998951942398954
-0.4612351813226458
0.5360440424036081
0.3657321211945562
0.14608628888466166
0.010143610408759102
-0.3350072077733686
-0.2557193594423731
-0.14951907346262858
0.27069789962294405
0.43653076534079327
-0.19564829005502887
-0.01801161567011307
-0.22708938096870485
0.24087640125502705
0.5559203872362273
-0.028747413414502446
0.4076793449638832
-0.14365068434377343
-0.08069731593410329
0.28371799180058205
-0.30438502286692387
-0.37568496783214456
-0.0037015529474750558
0.1473917019222047
0.24146781458302377
-0.3175925178164634
0.1659595674514081
0.2153255443946906
-0.21744560037561866
0.1516661050108836
0.0415843183487334
-0.7445332151351746
-0.5649463517281472
-0.5850425465887044
-0.37007812624282366
0.5243326495115549
0.050848169841811036
0.4841074842404991
-0.8120514170210261
-0.4778546187689629
0.5454735882110131
-0.19039046503794432
-0.36155672901728847
-0.7126921909260554
-0.40418660279584245
-0.47727211466585673
-2.090774900345534
0.28269270752807873
1.0738446428862827
-1.2580667068091274
-0.46597117863228577
-1.30717096821726
-1.1199545218399152
0.07646948622105615
-0.29598671601545895
1.34447848319546
-1.008034064301188
-0.4217407631669026
1.382157913828859
1.0840296814257901
0.12661882252017237
1.371210275587121
-0.3854710223087351
-0.022631296142744492
-0.28544039486707995
-0.04764039508564013
0.01998873361907202
-0.3407285020178358
-0.170706630127051
-0.32245856003185247
-0.22663692029812055
0.48947360958859887
0.08381425309101224
-0.1852666178718088
0.17797989686222587
-0.22700600908378665
-0.14132374455405422
-0.04596127100311353
0.3686491808593748
-0.609640628430007
0.09900984852431827
0.4784912682696504
-0.49461271493788245
0.2043403010169199
-0.5063514708001802
0.6468826524843296
-0.5393045689575285
-0.400672800820417
0.42993617023163205
-0.48783638407942687
0.4518605155758517
0.4791273079490877
0.397460167599103
-0.7849559100552854
-0.33257983107163275
-0.14751413448949152
-0.17434308304864496
0.5449064546983863
0.3582945369905861
-0.3697664089652586
-0.2256678017948045
-0.7932584266956705
0.29567620397565747
0.2419560428116496
0.0792806638239948
-0.4731903835365277
0.5976506087108084
-0.42340934325996726
-0.02985320944814419
0.8005410819700188
0.13651710714790405
0.07261364280614765
0.5043341763252389
-0.337074853371093
-0.2391647286651924
-0.2640077080074921
0.5443935338279715
0.017354556110535508
-0.8950998572209716
0.6337480510659882
-0.206611765845029
-0.6885897784825228
0.34260308112744964
0.3087760249497638
0.17527044806007117
-0.4448496792322155
0.7615204092416944
0.07527709566759935
-0.5715058640087337
0.37406060879035175
-0.19604006158621506
0.8099376264601335
-0.6542104290036324
-0.15618394726370133
0.12828235108653727
0.6812459571065814
-0.2626433291399538
0.1023084404991894
-0.29491942233293716
-0.6149469172916848
0.3659962175685237
0.6793490670122024
-0.43756050372059346
0.23172780298606047
-0.6616896129157
-0.2903373880454472
-0.19281385078678775
0.1275790259545492
0.24110639584579474
-0.6956117693643759
-0.2958936190719797
-0.9938249953428465
0.0954356324038924
0.631801702794287
-0.030626039236136875
-0.4758688896242281
-0.17518946359009255
-0.4531550216685196
-0.35664835824471336
0.10859230158650769
0.058977946766141466
0.617106442263664
0.16775531015051282
-0.6761967015916708
0.31515319650277945
0.342925337393624
0.07186108697189444
0.28551172902540234
-0.4840533686953216
0.1802681783597168
0.12664684707588492
0.2901303837269206
0.07355174790845727
-0.1107113721302663
-0.4377205011161712
0.014057351237406802
0.03462641942244801
0.38599552659175335
-0.44503987622960944
0.3500034076415696
0.16794005938075654
-0.005996909468801533
-0.36981822143521104
0.20928073454690835
-0.16882695110686033
0.6716614795538165
-0.6131537540343664
0.14393650113427015
0.9101309782842651
-0.3507100991045114
0.0034960458381367893
-0.0068775478481710025
-0.2464071995981835
0.02641997798786224
-0.3787587668689859
0.719861520254275
-0.351619980624461
-0.30706105919665205
0.375984823413452
-0.35681953303508257
0.23871997042202223
0.9120307726693522
-0.4856053698289771
-0.3924655730281938
-0.579908969117962
-0.12938727059233762
0.1584834836879402
0.5069842816882631
-0.2527284246631479
-0.5997724687070943
0.448096574061225
-1.2735364769765047
-0.7155571350374355
0.49589580170632447
0.24265940368363337
0.4915457531793406
0.22478345341763406
-0.5477335935083767
1.0151631388355258
-0.07314166381097038
0.17721185150785876
0.2289563487572673
-0.4850464715231134
1.1635009836853807
-1.5916287752098468
-1.0539194492947772
-0.508146374579034
-0.10926195684933576
-0.51812957970964
0.27426859280953453
-1.0385243765095233
0.24480732329171428
0.7127711779139938
-0.06438086363124394
0.4021325057839156
-0.732210271634314
0.5889420348836714
0.42621697998506114
-0.026183428327390897
0.9122767658270655
-0.4607536121062169
0.8422625740525252
0.4038236729706967
-0.005745970577057972
0.03788247893236727
1.1140421902232103
-0.7969365765490427
0.44614904966887214
-0.21690535980258266
-0.3253185343947408
-0.8238313937317407
-0.36633415757726834
-0.7256676010541805
0.5715922186505148
0.2100781089865562
0.30208983893904273
0.8617414136773612
0.09441162146996127
0.03484397679784449
-0.6631977817525222
-0.2976876565299465
0.2231515385370524
-0.3848300880292883
0.34775051156682274
0.07955327129654935
-1.27658922467973
0.17668851426402438
0.01362906013132664
0.19839803405787057
-0.17444538857578318
0.33486141709890704
0.3437037105531645
0.2955365448648097
-0.41451180169871804
-0.251376316425927
-0.9618642483339218
0.7946609241428338
0.573253134245053
0.3521567030292732
-0.770856522583812
-1.0542982277232908
-0.3261626536844044
