-0.15419460873612897
0.16559186374975843
-0.0874219530229011
0.02985383130713687
-0.03203734740912928
0.2267089010185298
-0.038864530268743536
-0.011835046486205425
0.1481735915459964
0.17589710679700632
-0.0591064656276728
0.13227053417380763
-0.09146203196296318
0.21849271095302614
-0.04550484178072328
-0.2017755084518038
0
0
0
0
0
0
0
0
0
0
0
0
0
0
0
0
-0.07622591116807598
-0.06789678173833157
-0.05248428067002507
-0.015810760979161134
-0.0053386900743804255
0.04782409344112408
0.07888727866973201
0.044945357216124596
-0.08442318082271026
0.059773173600696936
0.03562076356410619
0.044433488530136026
0.024534878712770297
0.036115561803876914
0.0019823894707018813
0.000691545559406509
0.017072853958238335
0.08814003668430422
0.042167710136830336
0.002785700445085887
0.00997571456663146
0.08158643262708569
0.07102483854877854
-0.016256687944813566
-0.06875982924406038
-0.044203992730804734
0.032475699540927286
0.08814861867909492
0.06606144573878174
-0.04200839510777486
0.055460752330275156
-0.0584605252012881
0.08508813937112202
0.012093629215299898
-0.013006397938900724
0.010722568391398887
0.011036792653248945
-0.0151216218205098
0.05459191081358196
0.01660073225311791
-0.06820995545705094
-0.03532920561010591
-0.010743769685869861
0.014375951038933951
-0.06660360437861343
0.06605654833401499
-0.029051526089303795
-0.07871146889670935
0.0020871485829062897
-0.059222650080767096
0.01251324546471727
-0.0073854842475462035
-0.04264922981494194
-0.05087308574871189
-0.01083191848822923
-0.00287944988556367
-0.017000289454236525
0.0513721312871598
0.08197245150126449
0.08683772620610301
0.0268358977828647
-0.04234967333158648
-0.020826696107094422
0.004664116865204265
0.07436213671123441
0.050944291018606494
-0.08425185947860256
0.06388591736245662
-0.05262465485253534
0.03717949962064544
0.07764851857292594
0.039919146236826755
-0.08564982668996621
-0.0033640301647861193
-0.01709113614502583
-0.048785167808172374
0.045367094712884734
-0.0651265414680521
-0.00033913469024814125
0.07010475011771407
-0.04994402418353072
-0.012272179983006754
-0.02438595634015163
0.08340772217239388
0.08526558525449025
-0.03897950520879753
-0.054702855515502205
0.06420737129656269
-0.005032678263388546
0.00452511566347065
0.06849453597722681
0.07592487936761073
-0.003189100091679928
-0.011318791912682855
0.08085279899262639
-0.02188445617863083
-0.0012743885876989325
-0.07837124229898736
0.0017195232356549128
-0.04615678973183325
-0.0016372509075074093
0.055006758647046725
-0.0029184119499573724
0.06690377112613007
0.05309419214394849
-0.06325127542392617
-0.0084165173290658
-0.004212840080833294
0.03602489861609502
0.05719812902491121
0.0775599935191522
0.06932253619224744
0.07990739992229783
0.029551777239184382
0.08241348195165761
-0.02663967283502211
-0.06827484658121116
0.0329963423789245
-0.050992029789492854
-0.04370200647067904
-0.06149783217491922
0.0837951225737366
0.027538929109260757
-0.04411432068779111
0.07628800990820221
0.050067516224507655
0.0830946517690833
-0.04596360785244071
0
0
0
0
0
0
0
0
0.1359438578364888
-0.10176437206275464
-0.09374053127897983
-0.14535215993308648
0.006046033077778318
0.12136391361244511
0.058660804816126094
-0.1615618365125964
0.10807768222202527
0.036151350731454535
-0.028461744956622015
-0.14305618296328332
-0.1317674983217882
0.14803584731038397
-0.03755403101937818
0.1102597738514072
-0.14950783236591647
0.13679444952853873
0.15358005013712747
0.007386999498121161
0.07672770011663796
-0.15920915912396444
0.06723488881190773
0.14318908914757586
-0.11824855457601241
0.08201091329109941
-0.17429759248496238
0.12266001845556271
0.15780538222827636
0.024836257549356783
-0.08674987532434683
-0.15599367213310542
0
0
0
0
-0.3403334799214538
-0.16467609600016742
0.1630766508108271
-0.23103080149350105
-0.002938108497300897
