0.22035961894591627
0.1771202360330496
0.07956192979183813
0.09361887985696588
0.042721727887782
0.1415416325141109
-0.05546111541053306
0.17193025883645996
-0.06603344528967944
0.18478197919924022
-0.11095777924874492
0.019527970470632205
0.04311850689843416
-0.11009625933872177
-0.2292894989138139
-0.0680258372974901
0
0
0
0
0
0
0
0
0
0
0
0
0
0
0
0
-0.011247042836677795
-0.025148610505406066
0.037125716641821946
0.06376126706332373
0.07924622193821047
-0.06261435859356022
-0.037372606134253264
-0.08049580240885233
-0.07638975886598222
0.02341769036958498
-0.04266905587752189
0.07255204493953167
0.0530495705571936
-0.05071302816813471
0.024088040377423084
0.0293939123518297
-0.04796793298730302
-0.035831326873365855
-0.00697011757419029
-0.06694998708922839
-0.05510247854452846
0.07108827368212732
0.0840891210486447
0.017358589970312643
-0.059370017583671386
0.020858705336844488
0.018425592031350913
0.048408148862184044
-0.07734358100930558
-0.05323542274189686
-0.016976498720951638
0.04229427769257289
-0.03368088260055911
-0.009400687147198147
0.061515509462921183
0.06239051526451704
0.01416514274502155
-0.0410087204155231
-0.07015466558845707
0.07730852215007956
0.012880193286011324
0.039586809168807954
0.040172414816634125
0.009445170796073321
0.05690939480952452
-0.007624020275936366
-0.05437132746099313
0.06571474386972063
0.07856106561523578
0.019973098167513192
-0.062300685263128215
-0.04243055828015139
-0.0320850521450722
-0.037065504482585776
0.016650096095328235
0.011863613666540498
0.024116694077948045
0.007508164563618497
-0.011869394905215894
0.029323162060861246
-0.07270698065066752
-0.03797530919066849
0.0003934715926104254
0.016856644855349212
0.016198563173853084
-0.061664673096530176
-0.03743134976458884
-0.02858629067683792
-0.02522526259911205
0.08084482281933185
-0.065181103752407
0.05297759593900635
-0.08547042147696847
-0.048295876653717325
-0.06733639786860189
0.0686925917087181
-0.06827954076770984
-0.05754429705515424
-0.015766812472485847
-0.0412411143966546
-0.02722313905119779
-0.05148775392749438
-0.038748556881144904
-0.03885366685463056
-0.07441747263369256
0.07632856316616325
0.005102108536736136
0.06155115171411761
0.016683570688948962
0.058485642341934665
-0.05613329998285342
-0.0013610304394781336
-0.06067123853568034
0.037865545406601905
-0.020563056592807064
0.004796338495332203
-0.014372351623986451
-0.008933535375541451
0.009882047908983727
-0.07871357619147638
0.001032141672741585
-0.08304151041516751
0.06837115965238887
-0.07962567635384306
0.05043967964368336
-0.019940125984011126
-0.04412563795569053
-0.05698402125844778
0.05102210030383138
0.05028278830764042
-0.01935539952699604
0.06897708654959052
-0.05018916906235074
-0.0394731011654174
0.050548644250276595
0.05101072978265121
0.032064178564153695
0.05911152961428155
-0.055916406602259536
0.031208932710443088
-0.0591428537285489
-0.017322424159132377
-0.015176336720128136
-0.033475567250035365
0.0793147410578574
-0.083679643498657
0.028667132711751447
0.0634828408002097
0
0
0
0
0
0
0
0
0.16399269856003948
-0.14516136779026312
-0.0543168520186334
-0.0462550395169071
-0.07184900782931726
-0.16970642100990732
-0.13421215726412833
0.1321278248384841
0.1712813356286639
0.003709163167518903
0.1582464713547502
0.17469047206118418
-0.10914715000713625
-0.002504921129526161
0.049362385146024035
0.17312966986936382
-0.06597008283962799
-0.08998598008001665
0.03587189419298337
0.1123920862371918
-0.16817399115519405
0.13954445562308312
0.01102124101476673
0.09122750005011834
-0.12450064718440465
0.14277821686947015
0.10185303041859053
-0.08375467148855642
-0.07868478265566828
-0.12701715393580518
-0.1157881624846843
0.020396359225948346
0
0
0
0
-0.585367209141673
0.4311328668249913
-0.3623167963596869
-0.1526494991994214
-0.007491493017649322
