[1,20,15,10,5,1]
2.064771841601399
1.8310992052267234
2.394049896764824
-1.2860915621835434
1.8775669609400039
-1.4649565317324227
1.8021293908894653
1.075770573941795
-0.2467175251448724
-0.2642272525197714
-0.8322069675104024
-1.9371177162990814
-1.796688132893483
1.2070375997974088
2.5048285012611133
0.06761693236773562
1.7948321530144944
-1.510391370480352
-0.9886137106940127
2.496996418628255
0.5011148623859796
0.10672746095497905
-1.9627288964915635
-0.8100048410165954
1.3306492048374174
1.239966187385598
-0.4177429348943293
-1.0983571736054314
1.231493399852403
0.9107070549067712
-0.7683535893555569
-1.3314934423072706
1.4478817289692585
-0.8305019481181536
1.8105455482891515
1.172657289864508
-0.15055019901266842
0.8175423572770716
-0.7084329898682199
0.19546436337318038
-0.5940001981670078
-0.5037426376452205
-0.3283783943597776
-0.1483320762105309
0.417504271263666
-0.03789844878954342
0.3838890645302579
-0.5473082405998497
0.06812364973181738
0.6438812769500045
-0.5315331877457208
-0.30689403434228113
-0.07629037526308127
-0.3849523502795971
-0.4842534202083416
-0.3763166342000079
-0.38035688606684687
-0.29277645560047105
-0.4677517462864794
0.3408148581399261
-0.07901753972876181
0.4046414565299007
-0.3350244236565924
-0.5691394962609339
0.317220984658113
-0.16786934781050572
0.13770875099245738
-0.44345542715053976
-0.061304268301065085
-0.5313326597724964
-0.45485662881310035
-0.056620708310751146
-0.6147649015111256
-0.0966284158145056
0.37335631232829614
0.8929807432722954
0.7145717709515377
-0.5051850202150194
-0.1650148616200711
-0.013830218953689877
0.08215028969988712
-0.18874414138209542
-0.5862526134157215
-0.7267761246595901
-0.5470501784701298
0.5689712709626688
-0.1924016681437902
-0.06547475949415275
0.2287982325155464
-0.49104222008567033
-0.2112424044109618
-0.15373370572017336
-0.13054597840135163
0.2905622648917366
-0.3614412444413052
0.20522282977576026
0.422058735421229
0.25038058863308316
0.17540237061161723
0.00456358213541563
-0.5701001625484879
-0.28781251890632775
0.028164008016554946
-0.492266951735859
0.3079699337014702
-0.11979439698182452
0.3103704316265939
-0.41458567518462686
-0.4490327661242281
0.34057232549130345
-0.5448985022211479
-0.3443945347129663
0.26364806718194506
-0.3417979445345589
-0.47473495682333344
-0.16996567660087694
0.16874229558929965
0.4949600006518977
0.1597405255414937
-0.4061417071928623
-0.5608860977945026
-0.32307868361179537
0.4281683817913749
0.09314425268997455
0.2537964970174783
0.3395441729093339
-0.20449496780450702
0.47141022177821973
0.057334162000336766
0.16688091632698931
-0.6475139412688413
0.08123920275086813
-0.18121704843467745
-0.4435547257313707
0.6491191544132836
0.7035937299941625
-0.027979800247018002
-0.671503563990046
0.08774758727920928
0.263804411501079
-0.36474312607915194
0.3833518282851442
-0.4498285299438767
-0.08428374497889905
-0.3941386301210047
0.13182055280430596
0.26327811104535487
-0.5006789736613614
-0.08347555537842256
0.05450348643383583
0.5542807763603772
0.15264171386838937
-0.05770682620309796
-0.3261178570534563
-0.2002689301777181
-0.051466565128205743
0.08691163117341817
-0.43802998669963783
-0.41478177225447743
0.14178003090310728
0.02068889241061258
0.0556087094765289
0.09619723194323272
-0.30651943721430913
-0.1716316333364642
-0.4323593357225786
0.014674914024333604
0.19394034418031286
0.02168482014621546
0.16295854097659984
0.4014200569858952
-0.24895267802656698
-0.27577044604943607
0.4231096201027161
-0.2019737400072844
0.12065157505771347
-0.005831908005916401
0.009512416192432208
-0.027191566588196575
0.1858450520038276
-0.2782341887374281
-0.4479925399229335
-0.1013540269316145
0.1739256779394174
0.12642360264795635
-0.3476129656297058
0.19345113397273664
-0.056402642783051155
0.0022681658574703802
-0.011245117590237377
0.3234042323890203
0.21316048153821088
0.0019762684874709896
0.3830281242378771
-0.05558597144873903
-0.13105302339709962
-0.28565335361594824
-0.254044757635581
0.06651221793719155
-0.36965875293066625
0.5044583311951887
0.3500580700691946
-0.37165396939064366
0.2327209338393362
-0.11275873996292055
0.6847604598648955
0.31225077584587835
-0.07471460871163943
0.46708181678758676
-0.10785857232776619
-0.5528500138941654
-0.5189221125435793
0.5018438337221383
-0.0236461204064305
-0.4044093712512354
0.28286684753335134
0.4549626328261149
-0.1853175370403441
0.2212714388620019
0.599532033873049
0.26782935052567447
0.05112681749659416
0.604586139722237
0.07192175058757778
0.03131244921336104
-0.2658993173292243
-0.3724651338362259
0.34408690491430827
0.48449859254839023
-0.017616101530607563
-0.19714363671201587
-0.18728087164710133
0.7552607830724242
0.462292180560704
0.4981591078559204
-0.33631416083522925
-0.3517863110640277
-0.09083858646099026
-0.06830387202251732
0.18795634045027362
0.4164945309484872
0.4102003333536804
-0.0480041248950407
-0.2233355992099487
0.29027428417106477
0.0741053980187534
-0.12092534580628736
-0.484379073744168
0.17805711236664296
0.1068189745688635
-0.5623334157832139
-0.02189263017989106
-0.6422523613397174
-0.5427991323466124
0.5863313845093188
-0.12624091873401178
0.006604171375769164
-0.27134901217447727
-0.6436009692149066
0.9023651951136418
-0.41336827223544503
-0.2870310498691903
-0.47966244861762797
-0.09660883130176175
-0.7299360012957999
-0.16180496914868925
-0.13937635457866335
-0.16871230408183802
-0.33653744189836055
0.2269253245733755
-0.22815629596222353
-0.25612863012238746
-0.140848714108508
0.19139603042582867
0.0880232958846865
-0.16814823008384466
0.13472530184177237
-0.010955831490675262
0.1784649714006778
0.22418264354932252
-0.3772157289982569
-0.18661501132092723
-0.4451882505006824
0.03574944445499126
0.5869183233632496
0.5536341374818078
0.19412077256808705
-0.4567696822203943
-0.5195050185155093
0.250497950403096
-0.009728626316264158
-0.4212289918028326
-0.02680503865832333
-0.2214858258056127
-0.45682976039030754
0.5669741129746491
0.3741257934678259
0.15123545120100368
0.023873774931190864
-0.34379435870277086
-0.27708896650107573
-0.15436046819198607
0.2731033253847793
0.4456861903311308
-0.20356794228825026
-0.005870983367768061
-0.22081375334358672
0.25725973316828743
0.559832951083598
-0.03032130626242757
0.3982381724074819
-0.14991726164005575
-0.10742803313166534
0.28578854976186896
-0.29673330223759503
-0.4117223894963613
0.004154622299456854
0.1468993698187459
0.2335729451066223
-0.31837913978826954
0.16599541524830555
0.21608851342059057
-0.19378022771769743
0.14012032711314423
0.039846063613383595
-0.7690129075807923
-0.5631677276987019
-0.5557469064105013
-0.38367585358470724
0.5219478207817866
0.08901960811424967
0.47451006383748223
-0.8144570177760179
-0.4768666937173418
0.5529215407225462
-0.20148601042514624
-0.3678664582000493
-0.7377216438439527
-0.3909812765646469
-0.47120696079863267
-1.9160956665066815
0.33652435812501164
1.2298916921543817
-1.1876488707723383
-0.528595972137858
-1.1148306222706659
-1.1645444826640114
0.08298719232779449
-0.23044578345016872
1.3048256272237861
-0.9443070375979564
-0.38733007983049295
1.257747501328789
1.1487055462062825
0.12745070597456315
1.3731698737760605
-0.34725054472883915
-0.029464392037181063
-0.3025448887057788
-0.052975626104331236
0.004682225031125542
-0.33202451746371225
-0.13061016839487996
-0.29993086929552465
-0.2339969036743156
0.5052811481585286
0.12286820929248043
-0.18909796062928544
0.20622534473378157
-0.23336848013638672
-0.15387301000927006
-0.031073483245845208
0.40767715307910796
-0.5999798458713529
0.08775931279052887
0.4965221871780915
-0.5028842763136209
0.20067388549014709
-0.47632200365688987
0.6484707318828766
-0.5330885388357641
-0.3846132862491401
0.46355034030393893
-0.5048888914329788
0.4479046840863366
0.46352957021051194
0.4356788915299122
-0.7951164048527136
-0.35585494263558387
-0.152647163856177
-0.18972604436743284
0.5470501661945575
0.39838296904368553
-0.34725990066439716
-0.23160106792376814
-0.8108568968303559
0.2550539055101223
0.24558815823637364
0.05555968365464187
-0.4665855026479567
0.6112198425489072
-0.4392473595058942
-0.06991017961051363
0.7892229744221142
0.14743730641815497
0.054573462831497506
0.541213211363934
-0.3333439348633428
-0.2645104662200401
-0.267965574372285
0.529614530125275
0.0013478612906488625
-0.9058413674504882
0.6556645693863059
-0.21535354754397992
-0.7065949846037984
0.34557235117581153
0.31243781510348534
0.1446864178655872
-0.44529172585218413
0.7583038346701466
0.05921525017150909
-0.605456547889989
0.39058275031326284
-0.19003108349849332
0.8274656866672959
-0.6101001380163661
-0.15981649026606046
0.14753416130030617
0.6734974286027591
-0.27436288560177485
0.11825814090011635
-0.25487809359929336
-0.61758168398025
0.35243242833424254
0.6973906645681084
-0.39532252133956597
0.22801170258102113
-0.6372306784757324
-0.29796553058825936
-0.20401309860984376
0.14316256726689422
0.28107324451347887
-0.6838013626897941
-0.3088130112445644
-0.9776333565664761
0.05722025697748415
0.6441969636185704
-0.006611467450793524
-0.47074158796920434
-0.15979737082713907
-0.45966741502348624
-0.3967383630728266
0.0860648664155285
0.06492884173499704
0.6029742322637829
0.2059691103620488
-0.6854361839490852
0.2927980417199616
0.3377725651580574
0.05650250505241938
0.28769576101167377
-0.44398048709678817
0.20273466957663575
0.12058988802630914
0.2755067140513592
0.11161188250059759
-0.11723371313780802
-0.460082799060469
0.008935646309419792
0.01934285015562134
0.384141486222587
-0.405200781746208
0.3723722587083027
0.16203279794068493
0.012042421003565021
-0.4021997440030507
0.2055664060703636
-0.14280992988884197
0.6739545211907508
-0.5987657223152185
0.1599204911735401
0.9322738550468163
-0.37171790617896044
0.010491863975736553
0.011130720223121886
-0.25495607712087676
0.022746385032934597
-0.34914255008140116
0.720741639556485
-0.34514214794241976
-0.2909904766488627
0.4068935161689634
-0.3738133960393778
0.23503994313387894
0.933045559682762
-0.44597515731673926
-0.3962583352078917
-0.5575468239720673
-0.13575537637551563
0.14465416704438935
0.5219960696113606
-0.21266520895415308
-0.5792252810264734
0.43816639475068714
-1.1847166214052989
-0.9106166511550485
0.4783067285639927
0.36408384882832734
0.5141425362311316
0.3021961415918413
-0.46360110846662683
0.8169482557722456
-0.18125042778592107
0.20515976573672925
0.2446784699640061
-0.4893193467167449
1.1552513332758683
-1.5554902222671183
-1.066805039820595
-0.5372260393171129
-0.10336887561332665
-0.5572056385010077
0.25728785760628686
-0.970163723979535
0.22938017946338404
0.7309559093311572
-0.011829978227150975
0.3756490978462901
-0.7936314462177899
0.573309698138406
0.43105319991343677
-0.039534478124929
0.8471433161087829
-0.4194130796951728
0.8679245355363469
0.3980101545612099
0.033302424874516685
0.058880212125001205
1.0524074848926162
-0.8175312650127824
0.45320432615655687
-0.24350118803875243
-0.37176265748894527
-0.7686926701744842
-0.3510487423646604
-0.7351709099622316
0.5222720713732468
0.2407539025397674
0.3592891503261709
0.919639319747649
0.09032191833981483
0.09105694795261765
-0.6913380327175367
-0.3624788772816202
0.20792224972928883
-0.37706227769092965
0.3647374552952802
-0.03695300782634162
-1.2848156341055241
0.19541354372089395
0.007789890747457149
0.23344590694667652
-0.154705535108493
0.2764574993485648
0.26726902280915565
0.2439286095204426
-0.14204135970828702
-0.3780674514229126
-1.285909914720152
1.0127941349703293
0.5843999277016199
0.5522813584081887
-1.028826035377127
-1.5682533003112655
-0.41079341259998614
