[2,15,10,1]
0.3029462659607128
0.5559781431569385
-0.1705636133479392
1.0313600819304152
0.14233355519779292
-0.16010320418890195
-0.019254223601270878
0.25611124603712226
0.6700444137666104
0.7514251355816306
-0.16161430007953792
0.2228318715568202
0.5700763747001737
-0.4443552551694747
-0.07231501760927156
0.08999232510927084
0.3907581310782702
-0.572502456478132
-0.6509546674199138
0.35055415737107215
-0.7112140741761709
-0.857917443991939
0.16634338856116868
0.263682226860894
-0.32198485751958816
0.6651617716700828
0.3418601668535187
0.05663452948272526
0.18725751678491576
-0.3685056782082144
0.05832618598849358
-1.1137077919467424
0.8126184768506676
-0.42121934238792536
-0.3870790795806716
0.5169797766617781
0.4691746804700507
-0.37873071442794654
-0.6626173734270092
-0.15134993774049313
-0.7558644434254934
-0.4774410242654853
-0.2361385797683756
-0.02303039632578969
0.9533494850891174
0.1775338821462464
-0.10150815104504296
0.16599358811467024
-0.42348596808812206
0.07397959420517541
0.27822444667779106
-0.06734821856538889
-0.22056254672991657
-0.1635201661221794
-0.09613483104368721
-0.3037250478482007
-0.1753928747607755
-0.15474155160830713
-0.257754643334544
-0.11638814920154858
0.35926757356112826
0.21298175936923633
0.443828353027748
0.43058211636519245
-0.2876413105465518
0.2008098499796852
0.10996286746424244
-0.06184857018722439
-0.10305337387419185
0.4231522568054516
-0.13555408402188426
0.21040132869965475
-0.3219562391793642
-0.45711304876113396
-0.24365010275688298
0.48100152478902924
-0.3279367591669875
0.09381702531021383
-0.4690016282327718
-0.1300971101137456
0.4792011253623094
-0.5439112092079061
0.588228157252439
-0.4451642175451443
0.2566644014643223
-0.3341210388793353
-0.06596182108764949
0.501983139023317
0.22277965065416155
-0.10906028872546245
-0.30171533205039847
-0.39917142221742
0.27327218303404033
0.03942552970215702
0.42769495215523984
-0.31436255421007836
0.003192400075949562
-0.07725028027778186
-0.2157727943032407
0.374345370208513
-0.15791818030522692
-0.5697287867937106
-0.25767123088309685
-0.11567839041075646
0.270814342853943
0.3414680306861999
-0.43615007111038556
-0.08162932850465698
0.37646900569934566
0.08852219013084982
0.03833416134983983
-0.27330150080229404
0.24698380091743988
-0.1798083063902975
0.22994710875299593
-0.3422815958087846
-0.21086488892795358
0.1962181201221684
-0.18328923869306069
0.18804170756167787
0.39395953548408297
-0.33400837558941726
0.004067496802594401
0.2148640047915746
-0.11682335413929178
-0.22919378739571994
-0.55813781445116
0.1449184568020132
-0.03485418166250942
0.05793228027758896
0.2148941837654682
-0.13701823557249554
0.19150398786110454
-0.05163329529657553
-0.1354530509005611
-0.019710224424860256
-0.5321668493438645
-0.46894878481972996
-0.1152768351887866
0.5148287407928047
0.3627814507800606
0.306147453059802
-0.118962180322491
-0.20016249493957836
-0.0013469047569613184
-0.4007562656310363
-0.009183567666794418
0.45267870236390206
0.17202444844115466
-0.23760527191465666
-0.07145725499144275
0.000048587429926099124
0.020172089006485382
0.04230272921261993
-0.25654688391680175
0.04202534469046812
-0.5090123957798176
-0.1958840272495696
0.23994276411580187
-0.24663614371120843
-0.10387924924193107
0.16494628877668718
-0.4146619967051753
0.4016725715653105
-0.09391648009425696
-0.18909035698486157
0.032717533761167636
-0.00532140701600397
0.2317178337293349
0.4247850545977404
-0.10005485798825675
0.20171462959140368
0.4503454051975698
-0.2816110661204401
0.25108541321323136
-0.19354860076655866
-0.16749737175347948
-0.2752213822208876
0.2549624157196822
0.12019244434922394
-0.19379199019164542
0.2984275179461315
-0.5093078397145162
0.0800456442166415
0.21795754484844565
0.28678493717693393
0.3439452408211679
0.1490345958448232
0.22474245770248508
0.4769568368232687
-0.34861143013021767
-0.40919736712995797
-0.2154814900121786
-0.21353986097336822
-0.17821041452340122
0.8162029684070345
0.5921064274123082
-0.044329891862689506
0.06123679520344698
0.41373436121875945
-0.26114223729557795
-0.3278177110447238
-0.45884292834737134
-0.5599390908154074
0.009345995173786124
0.42296727973570153
-0.4735037749483796
-0.23052911276100982
-0.1920480584021901
0.5433495579859488
0.22455149891009846
-0.4144572917908971
0.38544526352271175
-0.18205984942282102
0.029819290423545444
-0.35871252323070213
