[2,15,10,1]
0.3029413572712243
0.5560227277954094
-0.17059675169357383
1.0314193037084152
0.14233988503534073
-0.16014910397424154
-0.01925558350752634
0.2561208864746089
0.6700799123858178
0.7514505126466036
-0.1615870151389949
0.2228536286567479
0.5700788385980659
-0.4443654050081083
-0.07236670892784369
0.08996983869913106
0.39078475112085687
-0.5725291705562001
-0.6510017122864917
0.3505691471069301
-0.7112450865989128
-0.8579568880222069
0.1663354890103309
0.26367603278553137
-0.32201996169012354
0.665204032080546
0.3418847043546521
0.0566223310367237
0.1872787171591188
-0.36854485742297854
-0.17262611333940264
-0.07984012997580456
0.2264761512271183
-0.41045465751116333
-0.11578015855995928
0.39348073262808214
0.5756012771318224
-0.23946010658823882
-0.38326678773980705
-0.4209200306348875
-0.5010542432140394
-0.14470305896988825
-0.299447034105606
0.1953277606464047
0.20092396119884323
0.177530559732444
-0.10151571482080812
0.16600213863889388
-0.42348324957017097
0.07396818588448062
0.2782270777756814
-0.0673333429745911
-0.22055683405405488
-0.16351519656719024
-0.09613607887436233
-0.30373232634990865
-0.17540442946336174
-0.1547289202227256
-0.2577556531247392
-0.11641280674381274
0.35927532661104905
0.2130071352535248
0.4438396329420454
0.4305912183792123
-0.28764317874507156
0.2008234246971799
0.10995222777869283
-0.061864384811852996
-0.10306105960796604
0.42317790396484817
-0.1355509010125432
0.2103749191790113
-0.32194902764439326
-0.45712246471684753
-0.24364772572988458
0.48103882429807754
-0.327974715854193
0.09380500614141264
-0.46901786118356564
-0.1300698631377053
0.4792185225557517
-0.5439315984619403
0.5882597371551035
-0.4451748476889565
0.25666589671221784
-0.3341329203131003
-0.0659594001774942
0.5019941960019849
0.22278493932503743
-0.10908010596297428
-0.3017156825583785
-0.3991515377203412
0.27327081293872535
0.03943308169369703
0.42769331639176345
-0.31434690429571854
0.0031788142385303798
-0.0772675876793482
-0.21578357765684147
0.37437178279242717
-0.15791305128024719
-0.569757102354906
-0.2576613520618709
-0.11568862957780378
0.2708169827134984
0.34148163382772895
-0.4361731084419241
-0.0816458597227763
0.3764560043739392
0.0885438068850137
0.03834371119154481
-0.2733258580433528
0.2470012510825925
-0.17981665478416778
0.22994970560794967
-0.3422811769111177
-0.21086663818716034
0.1962262077374943
-0.18328677203772004
0.18803221691839037
0.3939609641563431
-0.3339954787174535
0.004069736505116291
0.21486751728340284
-0.11682463718452825
-0.22919069787158713
-0.5581523919098769
0.14492810039830645
-0.03485487534953566
0.057918652430283386
0.21490212407122275
-0.13700016527296643
0.19151722543037364
-0.051628119575858646
-0.13545461535058162
-0.019686515564697683
-0.5321912809335925
-0.4689498463094849
-0.11528396783317701
0.5148398132346425
0.3627920907341449
0.30614442292072774
-0.1189419915206273
-0.20016671232718855
-0.0013469308375227123
-0.40076036677914145
-0.009156630861429994
0.4526883951893575
0.17203489001879876
-0.23761339251143956
-0.07146834256359104
0.0000591285706892585
0.02015169289332153
0.04230520844279673
-0.2565485695892822
0.04201544346772778
-0.5090121982090569
-0.1958719076408017
0.23994753833972673
-0.24665657554540482
-0.10387847517587778
0.16496783058258732
-0.41466138173665734
0.4016803260589425
-0.09391828505790469
-0.18908900979987653
0.03270128834357125
-0.0053105423750913604
0.23171871164610067
0.42477146139125077
-0.10004797353878617
0.2017337899607922
0.4503585357939448
-0.2816054218329074
0.2510837863393475
-0.19355944903235317
-0.16748108334045578
-0.27522475457821166
0.254965489050569
0.12019181842524307
-0.1937987331071721
0.29842229814447313
-0.5093209460117587
0.08004555368173592
0.21795806917140165
0.2867846533940285
0.34393192126673694
0.1490253675414035
0.22473746551377066
0.476966281076862
-0.3486071790227554
-0.4092094224002826
-0.21547254417564296
-0.21354248559923014
-0.17820888270956076
0.2839988890391394
0.26405964185413394
-0.1123688251884537
0.19104214321674462
0.3464263279565698
-0.25170131676431645
-0.32256626934653954
-0.31988553313534623
-0.4553920250049111
0.02531862580703855
0.4230723266311737
-0.4735451462846154
-0.23059465293516623
-0.19206639173367807
0.5434355240168258
0.22458662624752082
-0.4145407420899236
0.3854819804586533
-0.1821832790068704
0.029870333022862607
-0.07157489791476707
